digraph Tree {
node [shape=box, style="filled, rounded", color="black", fontname=helvetica] ;
edge [fontname=helvetica] ;
0 [label="sepal length (cm) <= 5.45\ngini = 0.66\nsamples = 96\nvalue = [48, 46, 56]\nclass = virginica", fillcolor="#f5effd"] ;
1 [label="petal width (cm) <= 0.8\ngini = 0.24\nsamples = 31\nvalue = [45, 3, 4]\nclass = setosa", fillcolor="#e99356"] ;
0 -> 1 [labeldistance=2.5, labelangle=45, headlabel="True"] ;
2 [label="gini = 0.0\nsamples = 27\nvalue = [45, 0, 0]\nclass = setosa", fillcolor="#e58139"] ;
1 -> 2 ;
3 [label="sepal length (cm) <= 4.95\ngini = 0.49\nsamples = 4\nvalue = [0, 3, 4]\nclass = virginica", fillcolor="#e0cef8"] ;
1 -> 3 ;
4 [label="sepal width (cm) <= 2.45\ngini = 0.32\nsamples = 2\nvalue = [0, 1, 4]\nclass = virginica", fillcolor="#a06aec"] ;
3 -> 4 ;
5 [label="gini = 0.0\nsamples = 1\nvalue = [0, 1, 0]\nclass = versicolor", fillcolor="#39e581"] ;
4 -> 5 ;
6 [label="gini = 0.0\nsamples = 1\nvalue = [0, 0, 4]\nclass = virginica", fillcolor="#8139e5"] ;
4 -> 6 ;
7 [label="gini = 0.0\nsamples = 2\nvalue = [0, 2, 0]\nclass = versicolor", fillcolor="#39e581"] ;
3 -> 7 ;
8 [label="petal width (cm) <= 1.7\ngini = 0.52\nsamples = 65\nvalue = [3, 43, 52]\nclass = virginica", fillcolor="#eadffb"] ;
0 -> 8 [labeldistance=2.5, labelangle=-45, headlabel="False"] ;
9 [label="sepal width (cm) <= 3.45\ngini = 0.19\nsamples = 35\nvalue = [3, 43, 2]\nclass = versicolor", fillcolor="#4fe88f"] ;
8 -> 9 ;
10 [label="petal length (cm) <= 5.0\ngini = 0.08\nsamples = 32\nvalue = [0, 43, 2]\nclass = versicolor", fillcolor="#42e687"] ;
9 -> 10 ;
11 [label="gini = 0.0\nsamples = 29\nvalue = [0, 42, 0]\nclass = versicolor", fillcolor="#39e581"] ;
10 -> 11 ;
12 [label="petal length (cm) <= 5.45\ngini = 0.44\nsamples = 3\nvalue = [0, 1, 2]\nclass = virginica", fillcolor="#c09cf2"] ;
10 -> 12 ;
13 [label="sepal width (cm) <= 2.75\ngini = 0.5\nsamples = 2\nvalue = [0, 1, 1]\nclass = versicolor", fillcolor="#ffffff"] ;
12 -> 13 ;
14 [label="gini = 0.0\nsamples = 1\nvalue = [0, 1, 0]\nclass = versicolor", fillcolor="#39e581"] ;
13 -> 14 ;
15 [label="gini = 0.0\nsamples = 1\nvalue = [0, 0, 1]\nclass = virginica", fillcolor="#8139e5"] ;
13 -> 15 ;
16 [label="gini = 0.0\nsamples = 1\nvalue = [0, 0, 1]\nclass = virginica", fillcolor="#8139e5"] ;
12 -> 16 ;
17 [label="gini = 0.0\nsamples = 3\nvalue = [3, 0, 0]\nclass = setosa", fillcolor="#e58139"] ;
9 -> 17 ;
18 [label="gini = 0.0\nsamples = 30\nvalue = [0, 0, 50]\nclass = virginica", fillcolor="#8139e5"] ;
8 -> 18 ;
}